digraph Tree {
node [shape=box] ;
0 [label="the <= 0.5\ngini = 0.48\nsamples = 2286\nvalue = [917, 1369]\nclass = real_news"] ;
1 [label="hillary <= 0.5\ngini = 0.452\nsamples = 1930\nvalue = [666, 1264]\nclass = real_news"] ;
0 -> 1 [labeldistance=2.5, labelangle=45, headlabel="True"] ;
2 [label="donald <= 0.5\ngini = 0.432\nsamples = 1819\nvalue = [573, 1246]\nclass = real_news"] ;
1 -> 2 ;
3 [label="(...)"] ;
2 -> 3 ;
6 [label="(...)"] ;
2 -> 6 ;
9 [label="donald <= 0.5\ngini = 0.272\nsamples = 111\nvalue = [93, 18]\nclass = fake_news"] ;
1 -> 9 ;
10 [label="(...)"] ;
9 -> 10 ;
13 [label="(...)"] ;
9 -> 13 ;
16 [label="trumps <= 0.5\ngini = 0.416\nsamples = 356\nvalue = [251, 105]\nclass = fake_news"] ;
0 -> 16 [labeldistance=2.5, labelangle=-45, headlabel="False"] ;
17 [label="era <= 0.5\ngini = 0.389\nsamples = 340\nvalue = [250, 90]\nclass = fake_news"] ;
16 -> 17 ;
18 [label="(...)"] ;
17 -> 18 ;
21 [label="(...)"] ;
17 -> 21 ;
22 [label="clean <= 0.5\ngini = 0.117\nsamples = 16\nvalue = [1, 15]\nclass = real_news"] ;
16 -> 22 ;
23 [label="(...)"] ;
22 -> 23 ;
24 [label="(...)"] ;
22 -> 24 ;
}